digraph Tree {
node [shape=box, style="filled, rounded", color="black", fontname=helvetica] ;
edge [fontname=helvetica] ;
0 [label="BallControl <= 43.5\nfriedman_mse = 1.0\nsamples = 11327\nvalue = -0.002", fillcolor="#e88f50"] ;
1 [label="Marking <= 49.5\nfriedman_mse = 0.978\nsamples = 469\nvalue = -0.147", fillcolor="#ea975c"] ;
0 -> 1 [labeldistance=2.5, labelangle=45, headlabel="True"] ;
2 [label="ShortPassing <= 48.5\nfriedman_mse = 0.814\nsamples = 88\nvalue = -0.432", fillcolor="#eda673"] ;
1 -> 2 ;
3 [label="friedman_mse = 0.901\nsamples = 70\nvalue = -0.78", fillcolor="#f0b890"] ;
2 -> 3 ;
4 [label="friedman_mse = 0.21\nsamples = 18\nvalue = -2.122", fillcolor="#ffffff"] ;
2 -> 4 ;
5 [label="Composure <= 52.5\nfriedman_mse = 0.993\nsamples = 381\nvalue = -0.081", fillcolor="#e99456"] ;
1 -> 5 ;
6 [label="friedman_mse = 0.999\nsamples = 279\nvalue = 0.024", fillcolor="#e88e4d"] ;
5 -> 6 ;
7 [label="friedman_mse = 0.861\nsamples = 102\nvalue = -0.584", fillcolor="#eeae80"] ;
5 -> 7 ;
8 [label="Interceptions <= 62.5\nfriedman_mse = 1.0\nsamples = 10858\nvalue = 0.004", fillcolor="#e88f4f"] ;
0 -> 8 [labeldistance=2.5, labelangle=-45, headlabel="False"] ;
9 [label="Composure <= 71.5\nfriedman_mse = 1.0\nsamples = 7226\nvalue = -0.017", fillcolor="#e89051"] ;
8 -> 9 ;
10 [label="friedman_mse = 0.999\nsamples = 6531\nvalue = -0.063", fillcolor="#e99355"] ;
9 -> 10 ;
11 [label="friedman_mse = 0.979\nsamples = 695\nvalue = 0.272", fillcolor="#e58139"] ;
9 -> 11 ;
12 [label="Reactions <= 65.5\nfriedman_mse = 0.998\nsamples = 3632\nvalue = 0.046", fillcolor="#e78d4c"] ;
8 -> 12 ;
13 [label="friedman_mse = 0.976\nsamples = 1453\nvalue = 0.246", fillcolor="#e5823b"] ;
12 -> 13 ;
14 [label="friedman_mse = 0.999\nsamples = 2179\nvalue = -0.03", fillcolor="#e89152"] ;
12 -> 14 ;
}